digraph Tree {
node [shape=box, style="filled, rounded", color="black", fontname=helvetica] ;
edge [fontname=helvetica] ;
0 [label="genreEncoded <= 2.5\nentropy = 1.0\nsamples = 635\nvalue = [494.0, 493.5]\nclass = No", fillcolor="#ffffff"] ;
1 [label="genreEncoded <= 1.5\nentropy = 0.574\nsamples = 232\nvalue = [222, 35]\nclass = No", fillcolor="#e99558"] ;
0 -> 1 [labeldistance=2.5, labelangle=45, headlabel="True"] ;
2 [label="moodEncoded <= 5.5\nentropy = 0.765\nsamples = 119\nvalue = [110.0, 31.5]\nclass = No", fillcolor="#eca572"] ;
1 -> 2 ;
3 [label="entropy = 0.63\nsamples = 98\nvalue = [93.0, 17.5]\nclass = No", fillcolor="#ea995e"] ;
2 -> 3 ;
4 [label="entropy = 0.993\nsamples = 21\nvalue = [17, 14]\nclass = No", fillcolor="#fae9dc"] ;
2 -> 4 ;
5 [label="artist_typeEncoded <= 2.5\nentropy = 0.196\nsamples = 113\nvalue = [112.0, 3.5]\nclass = No", fillcolor="#e6853f"] ;
1 -> 5 ;
6 [label="entropy = 0.537\nsamples = 26\nvalue = [25.0, 3.5]\nclass = No", fillcolor="#e99355"] ;
5 -> 6 ;
7 [label="entropy = 0.0\nsamples = 87\nvalue = [87, 0]\nclass = No", fillcolor="#e58139"] ;
5 -> 7 ;
8 [label="artist_typeEncoded <= 2.5\nentropy = 0.952\nsamples = 403\nvalue = [272.0, 458.5]\nclass = N1 Billboard", fillcolor="#aed7f4"] ;
0 -> 8 [labeldistance=2.5, labelangle=-45, headlabel="False"] ;
9 [label="durationEncoded <= 1.5\nentropy = 0.871\nsamples = 183\nvalue = [108.0, 262.5]\nclass = N1 Billboard", fillcolor="#8ac5f0"] ;
8 -> 9 ;
10 [label="entropy = 0.677\nsamples = 37\nvalue = [16.0, 73.5]\nclass = N1 Billboard", fillcolor="#64b2eb"] ;
9 -> 10 ;
11 [label="entropy = 0.912\nsamples = 146\nvalue = [92, 189]\nclass = N1 Billboard", fillcolor="#99cdf2"] ;
9 -> 11 ;
12 [label="moodEncoded <= 3.5\nentropy = 0.994\nsamples = 220\nvalue = [164, 196]\nclass = N1 Billboard", fillcolor="#dfeffb"] ;
8 -> 12 ;
13 [label="entropy = 0.966\nsamples = 77\nvalue = [65, 42]\nclass = No", fillcolor="#f6d2b9"] ;
12 -> 13 ;
14 [label="entropy = 0.966\nsamples = 143\nvalue = [99, 154]\nclass = N1 Billboard", fillcolor="#b8dcf6"] ;
12 -> 14 ;
}